Language model created by QuickLM on Wed Jul 16 08:56:31 EDT 2014
Copyright (c) 1996-2010 Carnegie Mellon University and Alexander I. Rudnicky

The model is in standard ARPA format, designed by Doug Paul while he was at MITRE.

The code that was used to produce this language model is available in Open Source.
Please visit http://www.speech.cs.cmu.edu/tools/ for more information

The (fixed) discount mass is 0.5. The backoffs are computed using the ratio method.
This model based on a corpus of 29 sentences and 31 words

\data\
ngram 1=31
ngram 2=58
ngram 3=29

\1-grams:
-0.7782 </s> -0.3010
-0.7782 <s> -0.2218
-2.2405 ALFRED -0.2218
-2.2405 BE -0.2218
-2.2405 BEING -0.2218
-2.2405 BUT -0.2218
-2.2405 DID -0.2218
-2.2405 EIGHTEEN -0.2218
-2.2405 FIRST -0.2218
-2.2405 IN -0.2218
-2.2405 IS -0.2218
-2.2405 IT -0.2218
-2.2405 LASAGNA -0.2218
-2.2405 NINETEEN -0.2218
-2.2405 NOW -0.2218
-2.2405 OF -0.2218
-2.2405 ON -0.2218
-2.2405 RIGHT -0.2218
-2.2405 SAY -0.2218
-2.2405 SEVENTEEN -0.2218
-2.2405 TWENTY -0.2218
-2.2405 TWENTYFIVE -0.2218
-2.2405 TWENTYFOUR -0.2218
-2.2405 TWENTYONE -0.2218
-2.2405 TWENTYSIX -0.2218
-2.2405 TWENTYTHREE -0.2218
-2.2405 TWENTYTWO -0.2218
-2.2405 WHAT -0.2218
-2.2405 WHICH -0.2218
-2.2405 WITH -0.2218
-2.2405 WORK -0.2218

\2-grams:
-1.7634 <s> ALFRED 0.0000
-1.7634 <s> BE 0.0000
-1.7634 <s> BEING 0.0000
-1.7634 <s> BUT 0.0000
-1.7634 <s> DID 0.0000
-1.7634 <s> EIGHTEEN 0.0000
-1.7634 <s> FIRST 0.0000
-1.7634 <s> IN 0.0000
-1.7634 <s> IS 0.0000
-1.7634 <s> IT 0.0000
-1.7634 <s> LASAGNA 0.0000
-1.7634 <s> NINETEEN 0.0000
-1.7634 <s> NOW 0.0000
-1.7634 <s> OF 0.0000
-1.7634 <s> ON 0.0000
-1.7634 <s> RIGHT 0.0000
-1.7634 <s> SAY 0.0000
-1.7634 <s> SEVENTEEN 0.0000
-1.7634 <s> TWENTY 0.0000
-1.7634 <s> TWENTYFIVE 0.0000
-1.7634 <s> TWENTYFOUR 0.0000
-1.7634 <s> TWENTYONE 0.0000
-1.7634 <s> TWENTYSIX 0.0000
-1.7634 <s> TWENTYTHREE 0.0000
-1.7634 <s> TWENTYTWO 0.0000
-1.7634 <s> WHAT 0.0000
-1.7634 <s> WHICH 0.0000
-1.7634 <s> WITH 0.0000
-1.7634 <s> WORK 0.0000
-0.3010 ALFRED </s> -0.3010
-0.3010 BE </s> -0.3010
-0.3010 BEING </s> -0.3010
-0.3010 BUT </s> -0.3010
-0.3010 DID </s> -0.3010
-0.3010 EIGHTEEN </s> -0.3010
-0.3010 FIRST </s> -0.3010
-0.3010 IN </s> -0.3010
-0.3010 IS </s> -0.3010
-0.3010 IT </s> -0.3010
-0.3010 LASAGNA </s> -0.3010
-0.3010 NINETEEN </s> -0.3010
-0.3010 NOW </s> -0.3010
-0.3010 OF </s> -0.3010
-0.3010 ON </s> -0.3010
-0.3010 RIGHT </s> -0.3010
-0.3010 SAY </s> -0.3010
-0.3010 SEVENTEEN </s> -0.3010
-0.3010 TWENTY </s> -0.3010
-0.3010 TWENTYFIVE </s> -0.3010
-0.3010 TWENTYFOUR </s> -0.3010
-0.3010 TWENTYONE </s> -0.3010
-0.3010 TWENTYSIX </s> -0.3010
-0.3010 TWENTYTHREE </s> -0.3010
-0.3010 TWENTYTWO </s> -0.3010
-0.3010 WHAT </s> -0.3010
-0.3010 WHICH </s> -0.3010
-0.3010 WITH </s> -0.3010
-0.3010 WORK </s> -0.3010

\3-grams:
-0.3010 <s> ALFRED </s>
-0.3010 <s> BE </s>
-0.3010 <s> BEING </s>
-0.3010 <s> BUT </s>
-0.3010 <s> DID </s>
-0.3010 <s> EIGHTEEN </s>
-0.3010 <s> FIRST </s>
-0.3010 <s> IN </s>
-0.3010 <s> IS </s>
-0.3010 <s> IT </s>
-0.3010 <s> LASAGNA </s>
-0.3010 <s> NINETEEN </s>
-0.3010 <s> NOW </s>
-0.3010 <s> OF </s>
-0.3010 <s> ON </s>
-0.3010 <s> RIGHT </s>
-0.3010 <s> SAY </s>
-0.3010 <s> SEVENTEEN </s>
-0.3010 <s> TWENTY </s>
-0.3010 <s> TWENTYFIVE </s>
-0.3010 <s> TWENTYFOUR </s>
-0.3010 <s> TWENTYONE </s>
-0.3010 <s> TWENTYSIX </s>
-0.3010 <s> TWENTYTHREE </s>
-0.3010 <s> TWENTYTWO </s>
-0.3010 <s> WHAT </s>
-0.3010 <s> WHICH </s>
-0.3010 <s> WITH </s>
-0.3010 <s> WORK </s>

\end\
